-0.255962 
-0.997497 
0.127171 
-0.613392 
0.617481 
0.170019 
-0.997497 
0.127171 
-0.613392 
0.617481 
0.170019 
-0.0402539 
-0.299417 
0.791925 
0.64568 
0.49321 
-0.997497 
0.127171 
-0.613392 
0.617481 
0.170019 
-0.0402539 
-0.299417 
0.791925 
0.64568 
0.49321 
-0.651784 
0.717887 
-0.997497 
0.127171 
-0.613392 
0.617481 
0.170019 
-0.0402539 
-0.299417 
0.791925 
0.64568 
0.49321 
-0.651784 
0.717887 
-0.997497 
0.127171 
-0.613392 
0.617481 
0.170019 
-0.0402539 
-0.299417 
0.791925 
0.64568 
0.49321 
-0.651784 
0.717887 
0.421003 
0.0270699 
-0.39201 
-0.970031 
-0.817194 
-0.271096 
-0.705374 
-0.668203 
0.97705 
-0.108615 
-0.761834 
-0.990661 
-0.982177 
-0.24424 
0.0633259 
0.142369 
0.203528 
0.214331 
-0.667531 
0.32609 
-0.0984222 
-0.295755 
-0.885922 
0.215369 
0.566637 
0.605213 
0.0397656 
-0.3961 
0.751946 
0.453352 
0.911802 
0.851436 
0.0787072 
-0.715323 
-0.997497 
0.127171 
-0.997497 
0.127171 
-0.613392 
0.617481 
0.170019 
-0.0402539 
-0.299417 
0.791925 
0.64568 
0.49321 
-0.651784 
0.717887 
0.421003 
0.0270699 
-0.39201 
-0.970031 
-0.817194 
-0.271096 
-0.705374 
-0.668203 
0.97705 
-0.108615 
-0.761834 
-0.990661 
-0.982177 
-0.24424 
0.0633259 
0.142369 
0.203528 
0.214331 
-0.667531 
0.32609 
-0.0984222 
-0.295755 
-0.885922 
0.215369 
0.566637 
0.605213 
0.0397656 
-0.3961 
0.751946 
0.453352 
0.911802 
0.851436 
0.0787072 
-0.715323 
-0.0758385 
-0.529344 
0.724479 
-0.580798 
0.559313 
0.687307 
0.993591 
0.99939 
0.222999 
-0.215125 
-0.467574 
-0.405438 
0.680288 
-0.952513 
-0.248268 
-0.814753 
0.354411 
-0.88757 
-0.982421 
0.83758 
-0.448225 
-0.454207 
0.175817 
0.382366 
0.675222 
0.452986 
-0.0301218 
-0.589282 
0.487472 
-0.0630818 
-0.0840785 
0.898312 
0.488876 
-0.783441 
0.198096 
-0.22953 
0.470016 
0.217933 
0.14481 
-0.277322 
-0.69689 
-0.549791 
-0.149693 
0.605762 
0.0342112 
0.97998 
0.503098 
-0.308878 
-0.662038 
0.314615 
-0.0162053 
-0.872921 
0.399518 
0.00961333 
-0.705008 
0.899167 
-0.716849 
0.810236 
0.385784 
-0.393902 
-0.146886 
-0.859249 
0.933226 
0.366375 
-0.693533 
0.754509 
0.643361 
0.164098 
-0.617298 
-0.644215 
0.634388 
-0.0494705 
-0.688894 
0.00784326 
0.464034 
-0.188818 
-0.44084 
0.137486 
0.364483 
0.511704 
0.443831 
-0.0494095 
-0.75396 
-0.264382 
0.669362 
-0.929807 
0.0340281 
0.325968 
-0.147557 
-0.790643 
0.898679 
0.842769 
0.0990936 
-0.308023 
-0.0565508 
-0.250038 
0.69396 
-0.366253 
-0.0878018 
-0.456221 
0.965941 
-0.404401 
0.478378 
0.134556 
-0.60802 
0.522629 
0.678884 
-0.204688 
0.00180059 
0.780328 
-0.945067 
0.989257 
0.145177 
-0.898984 
0.0626545 
-0.611866 
0.686087 
0.253517 
0.315226 
-0.604297 
0.684317 
-0.753349 
-0.780145 
0.486251 
-0.371868 
0.882138 
-0.427839 
-0.327372 
-0.719474 
0.46617 
0.66924 
0.415998 
0.200476 
0.49443 
-0.494552 
-0.711051 
-0.996765 
-0.877987 
0.612476 
0.705252 
-0.578845 
-0.768792 
0.106418 
-0.971496 
-0.772454 
-0.0909757 
0.50444 
0.372295 
0.0868862 
-0.852229 
-0.12656 
-0.596118 
0.392438 
-0.419294 
-0.126621 
-0.535142 
0.155736 
0.065157 
0.257363 
-0.679617 
0.00827052 
0.926084 
0.391522 
0.849605 
-0.620106 
-0.328104 
-0.6433 
0.990356 
-0.0851161 
0.996033 
-0.804987 
0.250343 
-0.811213 
-0.124546 
0.863033 
-0.997497 
0.127171 
-0.613392 
0.617481 
0.170019 
-0.0402539 
-0.299417 
0.791925 
0.64568 
0.49321 
-0.651784 
0.717887 
0.421003 
0.0270699 
-0.39201 
-0.970031 
-0.817194 
-0.271096 
-0.705374 
-0.668203 
0.97705 
-0.108615 
-0.761834 
-0.990661 
-0.982177 
-0.24424 
0.0633259 
0.142369 
0.203528 
0.214331 
-0.667531 
0.32609 
-0.0984222 
-0.295755 
-0.885922 
0.215369 
0.566637 
0.605213 
0.0397656 
-0.3961 
0.751946 
0.453352 
0.911802 
0.851436 
0.0787072 
-0.715323 
-0.0758385 
-0.529344 
0.724479 
-0.580798 
0.559313 
0.687307 
0.993591 
0.99939 
0.222999 
-0.215125 
-0.467574 
-0.405438 
0.680288 
-0.952513 
-0.248268 
-0.814753 
0.354411 
-0.88757 
-0.982421 
0.83758 
-0.448225 
-0.454207 
0.175817 
0.382366 
0.675222 
0.452986 
-0.0301218 
-0.589282 
0.487472 
-0.0630818 
-0.0840785 
0.898312 
0.488876 
-0.783441 
0.198096 
-0.22953 
0.470016 
0.217933 
0.14481 
-0.277322 
-0.69689 
-0.549791 
-0.149693 
0.605762 
0.0342112 
0.97998 
0.503098 
-0.308878 
-0.662038 
0.314615 
-0.0162053 
-0.872921 
0.399518 
0.00961333 
-0.705008 
0.899167 
-0.716849 
0.810236 
0.385784 
-0.393902 
-0.146886 
-0.859249 
0.933226 
0.366375 
-0.693533 
0.754509 
0.643361 
0.164098 
-0.617298 
-0.644215 
0.634388 
-0.0494705 
-0.688894 
0.00784326 
0.464034 
-0.188818 
-0.44084 
0.137486 
0.364483 
0.511704 
0.443831 
-0.0494095 
-0.75396 
-0.264382 
0.669362 
-0.929807 
0.0340281 
0.325968 
-0.147557 
-0.790643 
0.898679 
0.842769 
0.0990936 
-0.308023 
-0.0565508 
-0.250038 
0.69396 
-0.366253 
-0.0878018 
-0.456221 
0.965941 
-0.404401 
0.478378 
0.134556 
-0.60802 
0.522629 
0.678884 
-0.204688 
0.00180059 
0.780328 
-0.945067 
0.989257 
0.145177 
-0.898984 
0.0626545 
-0.611866 
0.686087 
0.253517 
0.315226 
-0.604297 
0.684317 
-0.753349 
-0.780145 
0.486251 
-0.371868 
0.882138 
-0.427839 
-0.327372 
-0.719474 
0.46617 
0.66924 
0.415998 
0.200476 
0.49443 
-0.494552 
-0.711051 
-0.996765 
-0.877987 
0.612476 
0.705252 
-0.578845 
-0.768792 
0.106418 
-0.971496 
-0.772454 
-0.0909757 
0.50444 
0.372295 
0.0868862 
-0.852229 
-0.12656 
-0.596118 
0.392438 
-0.419294 
-0.126621 
-0.535142 
0.155736 
0.065157 
0.257363 
-0.679617 
0.00827052 
0.926084 
0.391522 
0.849605 
-0.620106 
-0.328104 
-0.6433 
0.990356 
-0.0851161 
0.996033 
-0.804987 
0.250343 
-0.811213 
-0.124546 
0.863033 
-0.903134 
0.789239 
-0.419965 
-0.545396 
0.538133 
-0.178564 
-0.596057 
0.256142 
0.208289 
-0.0967742 
-0.0672933 
0.195654 
0.269448 
0.709586 
0.657582 
0.24955 
0.441816 
0.131504 
-0.249733 
-0.631458 
0.475814 
0.110263 
0.810175 
-0.514267 
-0.62212 
0.209449 
-0.997497 
0.127171 
-0.613392 
0.617481 
0.170019 
-0.0402539 
-0.299417 
0.791925 
0.64568 
0.49321 
-0.651784 
0.717887 
0.421003 
0.0270699 
-0.39201 
-0.970031 
-0.817194 
-0.271096 
-0.705374 
-0.668203 
0.97705 
-0.108615 
-0.761834 
-0.990661 
-0.982177 
-0.24424 
0.0633259 
0.142369 
0.203528 
0.214331 
-0.667531 
0.32609 
-0.0984222 
-0.295755 
-0.885922 
0.215369 
0.566637 
0.605213 
0.0397656 
-0.3961 
0.751946 
0.453352 
0.911802 
0.851436 
0.0787072 
-0.715323 
-0.0758385 
-0.529344 
0.724479 
-0.580798 
0.559313 
0.687307 
0.993591 
0.99939 
0.222999 
-0.215125 
-0.467574 
-0.405438 
0.680288 
-0.952513 
-0.248268 
-0.814753 
0.354411 
-0.88757 
-0.982421 
0.83758 
-0.448225 
-0.454207 
0.175817 
0.382366 
0.675222 
0.452986 
-0.0301218 
-0.589282 
0.487472 
-0.0630818 
-0.0840785 
0.898312 
0.488876 
-0.783441 
0.198096 
-0.22953 
0.470016 
0.217933 
0.14481 
-0.277322 
-0.69689 
-0.549791 
-0.149693 
0.605762 
0.0342112 
0.97998 
0.503098 
-0.308878 
-0.662038 
0.314615 
-0.0162053 
-0.872921 
0.399518 
0.00961333 
-0.705008 
0.899167 
-0.716849 
0.810236 
0.385784 
-0.393902 
-0.146886 
-0.859249 
0.933226 
0.366375 
-0.693533 
0.754509 
0.643361 
0.164098 
-0.617298 
-0.644215 
0.634388 
-0.0494705 
-0.688894 
0.00784326 
0.464034 
-0.188818 
-0.44084 
0.137486 
0.364483 
0.511704 
0.443831 
-0.0494095 
-0.75396 
-0.264382 
0.669362 
-0.929807 
0.0340281 
0.325968 
-0.147557 
-0.790643 
0.898679 
0.842769 
0.0990936 
-0.308023 
-0.0565508 
-0.250038 
0.69396 
-0.366253 
-0.0878018 
-0.456221 
0.965941 
-0.404401 
0.478378 
0.134556 
-0.60802 
0.522629 
0.678884 
-0.204688 
0.00180059 
0.780328 
-0.945067 
0.989257 
0.145177 
-0.898984 
0.0626545 
-0.611866 
0.686087 
0.253517 
0.315226 
-0.604297 
0.684317 
-0.753349 
-0.780145 
0.486251 
-0.371868 
0.882138 
-0.427839 
-0.327372 
-0.719474 
0.46617 
0.66924 
0.415998 
0.200476 
0.49443 
-0.494552 
-0.711051 
-0.996765 
-0.877987 
0.612476 
0.705252 
-0.578845 
-0.768792 
0.106418 
-0.971496 
-0.772454 
-0.0909757 
0.50444 
0.372295 
0.0868862 
-0.852229 
-0.12656 
-0.596118 
0.392438 
-0.419294 
-0.126621 
-0.535142 
0.155736 
0.065157 
0.257363 
-0.679617 
0.00827052 
0.926084 
0.391522 
0.849605 
-0.620106 
-0.328104 
-0.6433 
0.990356 
-0.0851161 
0.996033 
-0.804987 
0.250343 
-0.811213 
-0.124546 
0.863033 
-0.903134 
0.789239 
-0.419965 
-0.545396 
0.538133 
-0.178564 
-0.596057 
0.256142 
0.208289 
-0.0967742 
-0.0672933 
0.195654 
0.269448 
0.709586 
0.657582 
0.24955 
0.441816 
0.131504 
-0.249733 
-0.631458 
0.475814 
0.110263 
0.810175 
-0.514267 
-0.62212 
0.209449 
0.397015 
0.169225 
-0.297403 
-0.0110782 
-0.839228 
0.481491 
0.224097 
0.240761 
0.382244 
0.609058 
-0.701773 
0.152074 
0.735466 
0.823115 
0.229408 
0.455367 
-0.913572 
0.335551 
0.953063 
-0.369976 
0.138401 
-0.388348 
-0.65215 
-0.782891 
0.73809 
0.702445 
0.488632 
-0.690237 
-0.346171 
-0.841304 
-0.846797 
0.281961 
0.640004 
0.0901822 
-0.103488 
-0.182043 
-0.402509 
-0.0688803 
0.00241096 
-0.694693 
-0.353923 
0.475997 
-0.372234 
0.653371 
0.918149 
0.746696 
0.450056 
-0.399884 
0.887997 
-0.745537 
-0.868526 
0.569933 
0.0491653 
0.219275 
0.912229 
-0.855464 
0.751274 
0.307718 
-0.355754 
-0.790399 
0.0101016 
-0.545824 
-0.419416 
0.839961 
0.102329 
0.325602 
-0.770928 
-0.0149236 
-0.241737 
-0.00637837 
0.586718 
0.0185247 
-0.235267 
0.376324 
0.0643025 
0.212561 
-0.209632 
-0.98822 
0.415754 
-0.798761 
0.246132 
0.726493 
-0.0169988 
0.494675 
-0.00619526 
-0.239784 
0.570727 
0.105625 
-0.285806 
0.911435 
0.261696 
-0.64684 
-0.251503 
-0.736747 
0.486557 
0.903439 
0.223975 
-0.944334 
-0.340312 
-0.88818 
0.27842 
-0.736747 
0.694143 
0.728629 
0.193762 
0.443281 
0.707938 
-0.970641 
-0.747063 
0.415815 
0.234291 
-0.564867 
-0.868099 
-0.66216 
0.248207 
-0.318033 
-0.361187 
-0.26487 
0.322001 
0.604785 
0.613758 
0.0530717 
0.222205 
0.596362 
0.801202 
-0.710379 
0.260353 
-0.195166 
-0.492599 
-0.72692 
0.710379 
-0.867672 
-0.144383 
0.146702 
-0.395428 
0.0961028 
-0.548875 
-0.3773 
